
\data\
ngram 1=48
ngram 2=1029

\1-grams:
-3.764531	#	-1.215929
-2.203728	$	-3.225866
-2.155738	''	-1.086854
-1.32678	,	-2.272256
-2.943345	-LRB-	-0.8240066
-1.202238	-NONE-	-1.074647
-2.919433	-RRB-	-0.3905898
-1.432093	.	-3.343399
-2.24932	:	-0.5357075
-1.427946	</s>
-99	<s>	-1.904979
-1.66416	CC	-1.964016
-1.483072	CD	-0.9335244
-1.107954	DT	-1.703767
-3.039232	EX	-1.889361
-4.366591	FW	-0.7519105
-1.025552	IN	-1.651353
-1.25198	JJ	-1.783909
-2.434625	JJR	-0.8876805
-2.764531	JJS	-0.6506938
-3.854708	LS	-0.5741407
-2.05856	MD	-1.89145
-0.9059187	NN	-1.751454
-1.045926	NNP	-0.954765
-2.634197	NNPS	-1.606727
-1.23666	NNS	-1.307894
-3.606923	PDT	-1.341372
-2.114345	POS	-1.235061
-1.766981	PRP	-1.215802
-2.121696	PRP$	-1.886732
-1.559564	RB	-1.631036
-2.875229	RBR	-0.9774013
-3.437172	RBS	-0.8772291
-2.683094	RP	-0.4563388
-4.968651	SYM	-0.4785831
-1.680178	TO	-2.227647
-4.49153	UH	-0.4341947
-1.609575	VB	-1.419908
-1.545078	VBD	-1.602998
-1.856046	VBG	-2.038226
-1.688984	VBN	-1.453624
-1.883004	VBP	-1.186813
-1.681746	VBZ	-2.004152
-2.372054	WDT	-1.31981
-2.610716	WP	-1.297921
-3.968651	WP$	-0.3236046
-2.767254	WRB	-1.094067
-2.144525	``	-1.329854

\2-grams:
-0.02632894	# CD
-2.92127	$ </s>
-0.006011092	$ CD
-1.919825	$ JJ
-2.113943	'' ''
-2.27888	'' -LRB-
-2.3838	'' -NONE-
-2.96926	'' -RRB-
-2.96926	'' .
-2.335792	'' :
-0.4804749	'' </s>
-1.511883	'' CC
-1.307763	'' DT
-1.006733	'' IN
-2.96926	'' JJ
-2.96926	'' JJR
-2.511883	'' MD
-1.432702	'' NN
-1.140815	'' NNP
-1.733732	'' NNS
-1.122717	'' PRP
-2.96926	'' PRP$
-2.113943	'' RB
-2.335792	'' TO
-2.511883	'' VB
-1.131672	'' VBD
-2.335792	'' VBG
-2.335792	'' VBN
-2.335792	'' VBP
-0.8834944	'' VBZ
-1.909823	'' WDT
-2.96926	'' WP$
-2.96926	'' WRB
-1.951674	, $
-1.233631	, ''
-3.798218	, -LRB-
-1.489582	, -NONE-
-3.340841	, </s>
-1.094096	, CC
-1.608447	, CD
-0.8717552	, DT
-2.363117	, EX
-3.798218	, FW
-1.111671	, IN
-1.370029	, JJ
-2.796772	, JJR
-3.107837	, JJS
-3.798218	, LS
-1.979113	, MD
-1.323807	, NN
-0.8586819	, NNP
-3.798218	, NNPS
-1.562689	, NNS
-1.401321	, PRP
-2.495743	, PRP$
-1.259853	, RB
-3.107837	, RBR
-3.164749	, RBS
-2.527927	, TO
-2.600478	, VB
-1.265294	, VBD
-1.75538	, VBG
-1.650644	, VBN
-2.050806	, VBP
-1.514766	, VBZ
-1.468684	, WDT
-1.942901	, WP
-3.164749	, WP$
-2.123357	, WRB
-1.84253	, ``
-0.794857	-LRB- $
-2.181653	-LRB- -NONE-
-1.724276	-LRB- CC
-1.180208	-LRB- CD
-1.025306	-LRB- DT
-1.071063	-LRB- IN
-1.548185	-LRB- JJ
-1.724276	-LRB- JJR
-2.181653	-LRB- MD
-1.548185	-LRB- NN
-0.4571041	-LRB- NNP
-1.548185	-LRB- NNS
-1.548185	-LRB- PRP
-2.181653	-LRB- RB
-2.181653	-LRB- VBG
-1.596192	-LRB- VBN
-2.487659	-NONE- $
-3.289292	-NONE- ''
-1.308531	-NONE- ,
-2.81217	-NONE- -LRB-
-1.134969	-NONE- -NONE-
-2.444194	-NONE- -RRB-
-1.05041	-NONE- .
-2.05041	-NONE- :
-3.92276	-NONE- </s>
-1.940338	-NONE- CC
-2.535964	-NONE- CD
-1.30252	-NONE- DT
-2.863323	-NONE- EX
-0.8375052	-NONE- IN
-1.842134	-NONE- JJ
-2.81217	-NONE- JJR
-3.465383	-NONE- JJS
-1.868786	-NONE- MD
-1.717195	-NONE- NN
-1.422021	-NONE- NNP
-2.289292	-NONE- NNS
-3.92276	-NONE- POS
-1.290742	-NONE- PRP
-2.319255	-NONE- PRP$
-1.623398	-NONE- RB
-2.863323	-NONE- RBR
-3.92276	-NONE- RBS
-2.863323	-NONE- RP
-0.7289863	-NONE- TO
-2.034019	-NONE- VB
-1.506341	-NONE- VBD
-1.09896	-NONE- VBG
-1.960233	-NONE- VBN
-1.623398	-NONE- VBP
-1.402801	-NONE- VBZ
-3.92276	-NONE- WDT
-3.92276	-NONE- WP
-3.067443	-NONE- WRB
-2.590322	-NONE- ``
-0.7067953	-RRB- ,
-1.515185	-RRB- -NONE-
-0.8731267	-RRB- .
-0.90309	-RRB- :
-1.20412	-RRB- </s>
-1.515185	-RRB- CC
-2.205565	-RRB- CD
-1.620105	-RRB- DT
-1.049218	-RRB- IN
-2.205565	-RRB- JJ
-1.748188	-RRB- MD
-1.572097	-RRB- NN
-1.748188	-RRB- NNP
-2.205565	-RRB- PRP
-1.350248	-RRB- RB
-1.748188	-RRB- TO
-1.20412	-RRB- VBD
-2.205565	-RRB- VBN
-2.205565	-RRB- VBP
-1.748188	-RRB- VBZ
-2.205565	-RRB- WDT
-2.205565	-RRB- ``
-1.192166	. ''
-2.69146	. -LRB-
-2.837589	. -NONE-
-2.306109	. -RRB-
-3.692906	. :
-0.03385827	. </s>
-3.002525	. NNP
-3.692906	. VBD
-3.235528	. ``
-2.24221	: $
-1.54324	: -NONE-
-2.290218	: .
-1.117271	: </s>
-1.272173	: CC
-0.9950554	: CD
-0.9634565	: DT
-2.875679	: EX
-1.075879	: IN
-1.200817	: JJ
-2.418301	: JJR
-2.185298	: LS
-1.874233	: MD
-1.54324	: NN
-0.7508484	: NNP
-1.605388	: NNS
-1.573203	: PRP
-2.875679	: PRP$
-1.488882	: RB
-2.875679	: RBR
-2.875679	: TO
-2.24221	: VB
-1.64015	: VBD
-2.020361	: VBG
-2.290218	: VBN
-1.874233	: VBP
-2.290218	: VBZ
-2.418301	: WDT
-1.816241	: WP
-2.24221	: WRB
-1.33912	: ``
-2.841735	<s> $
-3.697052	<s> ''
-2.695607	<s> -LRB-
-1.643078	<s> -NONE-
-2.499312	<s> :
-1.287852	<s> CC
-2.093547	<s> CD
-0.6414316	<s> DT
-2.310256	<s> EX
-0.8817399	<s> IN
-1.447283	<s> JJ
-2.540705	<s> JJR
-3.111591	<s> JJS
-2.695607	<s> LS
-3.697052	<s> MD
-1.385369	<s> NN
-0.7198468	<s> NNP
-2.540705	<s> NNPS
-1.356013	<s> NNS
-3.239675	<s> PDT
-1.18277	<s> PRP
-2.109341	<s> PRP$
-1.344805	<s> RB
-3.063584	<s> RBR
-3.239675	<s> RBS
-2.841735	<s> TO
-3.697052	<s> UH
-3.239675	<s> VB
-2.336585	<s> VBG
-3.111591	<s> VBN
-2.586462	<s> VBZ
-3.239675	<s> WDT
-2.394577	<s> WP
-2.218486	<s> WRB
-1.084339	<s> ``
-1.873127	CC $
-1.962068	CC ,
-2.074042	CC -NONE-
-3.460838	CC :
-3.460838	CC CC
-1.401401	CC CD
-0.9542425	CC DT
-2.263098	CC EX
-1.275107	CC IN
-0.9680308	CC JJ
-1.942763	CC JJR
-2.60552	CC JJS
-3.460838	CC LS
-1.982271	CC MD
-0.9297422	CC NN
-0.7979855	CC NNP
-2.60552	CC NNPS
-1.146128	CC NNS
-1.364971	CC PRP
-1.827369	CC PRP$
-1.304491	CC RB
-2.770457	CC RBR
-2.263098	CC TO
-1.465641	CC VB
-1.423677	CC VBD
-1.623249	CC VBG
-1.748188	CC VBN
-1.906551	CC VBP
-1.651278	CC VBZ
-3.003461	CC WDT
-2.770457	CC WP
-2.459393	CC WRB
-2.401401	CC ``
-3.18455	CD ''
-1.206826	CD ,
-3.641927	CD -LRB-
-0.7045425	CD -NONE-
-3.008458	CD -RRB-
-1.278754	CD .
-2.371636	CD :
-3.641927	CD </s>
-1.813482	CD CC
-0.7564147	CD CD
-2.786609	CD DT
-1.417394	CD IN
-1.485579	CD JJ
-3.008458	CD JJR
-2.951546	CD JJS
-3.056466	CD MD
-0.7031069	CD NN
-1.872796	CD NNP
-0.8323669	CD NNS
-3.008458	CD POS
-3.641927	CD PRP
-3.641927	CD PRP$
-2.640481	CD RB
-3.641927	CD RBR
-1.521792	CD TO
-2.230307	CD VBD
-3.056466	CD VBG
-2.406398	CD VBN
-2.444187	CD VBP
-2.640481	CD VBZ
-3.056466	CD WDT
-3.641927	CD WP
-3.641927	CD WP$
-3.641927	CD WRB
-3.641927	CD ``
-2.061357	DT $
-4.017045	DT ''
-2.957607	DT ,
-3.383576	DT -LRB-
-2.714569	DT -NONE-
-4.017045	DT -RRB-
-2.906455	DT .
-3.559667	DT :
-4.017045	DT </s>
-3.326664	DT CC
-1.635388	DT CD
-2.860697	DT DT
-4.017045	DT FW
-1.985636	DT IN
-0.6948596	DT JJ
-2.207485	DT JJR
-2.003365	DT JJS
-2.819305	DT MD
-0.3290907	DT NN
-0.8969095	DT NNP
-2.480486	DT NNPS
-1.095774	DT NNS
-3.383576	DT PRP
-4.017045	DT PRP$
-2.047784	DT RB
-2.781516	DT RBR
-2.605425	DT RBS
-3.559667	DT TO
-2.746754	DT VBD
-1.941619	DT VBG
-1.979884	DT VBN
-3.431584	DT VBP
-2.269633	DT VBZ
-3.383576	DT WDT
-3.015599	DT WP
-2.179456	DT ``
-1.235528	EX MD
-1.633469	EX RB
-0.8931057	EX VBD
-0.7040495	EX VBP
-0.2355285	EX VBZ
-0.7584072	FW -RRB-
-0.7584072	FW NN
-0.30103	FW VBZ
-2.988856	IN #
-1.625035	IN $
-3.642069	IN ''
-2.664345	IN ,
-1.450338	IN -NONE-
-2.620879	IN .
-4.099446	IN :
-3.244129	IN </s>
-3.098001	IN CC
-1.195687	IN CD
-0.4959406	IN DT
-2.943099	IN EX
-4.099446	IN FW
-1.778746	IN IN
-1.015215	IN JJ
-2.210705	IN JJR
-2.386796	IN JJS
-4.099446	IN MD
-0.9662903	IN NN
-0.8311644	IN NNP
-2.738979	IN NNPS
-1.197243	IN NNS
-3.040009	IN PDT
-1.473277	IN PRP
-1.451737	IN PRP$
-1.926065	IN RB
-3.244129	IN RBR
-4.099446	IN RP
-2.943099	IN TO
-3.642069	IN VB
-3.409065	IN VBD
-2.495941	IN VBG
-2.511735	IN VBN
-4.099446	IN VBP
-3.642069	IN VBZ
-2.41162	IN WDT
-2.642069	IN WP
-2.901706	IN WRB
-2.179671	IN ``
-2.762429	JJ $
-2.415641	JJ ''
-1.518014	JJ ,
-3.23955	JJ -LRB-
-1.644789	JJ -NONE-
-3.873018	JJ -RRB-
-1.644789	JJ .
-2.512551	JJ :
-1.787252	JJ CC
-1.659766	JJ CD
-2.461398	JJ DT
-1.238104	JJ IN
-1.191626	JJ JJ
-3.23955	JJ JJR
-3.415641	JJ JJS
-3.873018	JJ MD
-0.355132	JJ NN
-1.466251	JJ NNP
-3.182637	JJ NNPS
-0.6091219	JJ NNS
-3.23955	JJ PRP
-2.570543	JJ RB
-3.873018	JJ RBR
-3.873018	JJ RP
-1.960796	JJ TO
-3.182637	JJ VBD
-2.354943	JJ VBG
-2.512551	JJ VBN
-3.182637	JJ VBP
-3.287557	JJ VBZ
-3.873018	JJ WP
-3.182637	JJ WRB
-2.716671	JJ ``
-2.690373	JJR $
-2.690373	JJR ''
-1.579784	JJR ,
-1.688928	JJR -NONE-
-1.255273	JJR .
-2.232996	JJR :
-1.454845	JJR CC
-2.690373	JJR CD
-2.104913	JJR DT
-0.4965996	JJR IN
-1.191603	JJR JJ
-0.6889281	JJR NN
-1.999993	JJR NNP
-0.6889281	JJR NNS
-2.690373	JJR RB
-1.999993	JJR TO
-2.690373	JJR VB
-2.690373	JJR VBD
-2.690373	JJR VBN
-2.690373	JJR WRB
-1.90309	JJS $
-1.726999	JJS ,
-1.90309	JJS -NONE-
-1.670087	JJS .
-2.360467	JJS :
-2.360467	JJS CC
-1.775006	JJS CD
-1.90309	JJS DT
-0.80618	JJS IN
-0.8239087	JJS JJ
-0.5606673	JJS NN
-1.90309	JJS NNP
-2.360467	JJS NNPS
-0.741722	JJS NNS
-1.50515	JJS RB
-2.360467	JJS VBD
-1.726999	JJS VBG
-1.726999	JJS VBN
-2.360467	JJS VBP
-2.360467	JJS VBZ
-0.6848298	LS -RRB-
-0.4149733	LS .
-0.8129134	LS :
-2.432969	MD ,
-2.480977	MD -NONE-
-2.432969	MD DT
-3.066438	MD JJ
-3.066438	MD NNP
-3.066438	MD NNS
-3.066438	MD PRP
-0.7895166	MD RB
-0.09054661	MD VB
-3.066438	MD VBG
-2.376057	MD ``
-3.528699	NN $
-2.243188	NN ''
-0.9555224	NN ,
-2.886641	NN -LRB-
-1.385125	NN -NONE-
-2.80746	NN -RRB-
-0.9886477	NN .
-1.80746	NN :
-3.585611	NN </s>
-1.428255	NN CC
-2.263392	NN CD
-2.29188	NN DT
-4.219079	NN FW
-0.6110994	NN IN
-2.085009	NN JJ
-2.740513	NN JJR
-3.761702	NN JJS
-1.842624	NN MD
-0.8980821	NN NN
-2.170638	NN NNP
-1.096121	NN NNS
-1.673566	NN POS
-2.858612	NN PRP
-3.761702	NN PRP$
-1.786271	NN RB
-3.159642	NN RBR
-3.363762	NN RP
-1.687984	NN TO
-2.80746	NN VB
-1.336005	NN VBD
-2.159642	NN VBG
-2.071506	NN VBN
-2.381491	NN VBP
-1.340099	NN VBZ
-2.080461	NN WDT
-2.531253	NN WP
-2.701005	NN WRB
-2.531253	NN ``
-4.079072	NNP $
-2.475567	NNP ''
-0.8034696	NNP ,
-2.580303	NNP -LRB-
-2.206722	NNP -NONE-
-2.475567	NNP -RRB-
-1.296385	NNP .
-2.109812	NNP :
-3.077627	NNP </s>
-1.410842	NNP CC
-1.669872	NNP CD
-2.600506	NNP DT
-1.368842	NNP IN
-2.059403	NNP JJ
-4.079072	NNP JJR
-2.030631	NNP MD
-1.283239	NNP NN
-0.4136574	NNP NNP
-1.764363	NNP NNPS
-1.660274	NNP NNS
-1.316344	NNP POS
-3.223755	NNP PRP
-2.159297	NNP RB
-4.079072	NNP RP
-4.079072	NNP SYM
-2.431364	NNP TO
-3.019635	NNP VB
-1.204224	NNP VBD
-3.493612	NNP VBG
-3.077627	NNP VBN
-2.460327	NNP VBP
-1.431364	NNP VBZ
-3.388692	NNP WDT
-3.493612	NNP WP
-3.621696	NNP WRB
-3.493612	NNP ``
-0.8720558	NNPS ,
-2.490801	NNPS -LRB-
-2.033424	NNPS -NONE-
-2.490801	NNPS -RRB-
-1.0557	NNPS .
-1.334454	NNPS :
-1.635484	NNPS </s>
-1.22051	NNPS CC
-1.130334	NNPS IN
-1.489356	NNPS MD
-1.635484	NNPS NN
-0.4893557	NNPS NNP
-2.033424	NNPS NNPS
-2.490801	NNPS NNS
-1.334454	NNPS POS
-2.033424	NNPS RB
-2.490801	NNPS TO
-1.380211	NNPS VBD
-1.380211	NNPS VBP
-1.857332	NNPS VBZ
-2.490801	NNPS ``
-3.430961	NNS $
-2.334051	NNS ''
-0.9237805	NNS ,
-2.409772	NNS -LRB-
-1.393535	NNS -NONE-
-2.731992	NNS -RRB-
-0.9157501	NNS .
-1.723391	NNS :
-3.888339	NNS </s>
-1.239231	NNS CC
-2.886894	NNS CD
-1.9396	NNS DT
-0.6180481	NNS IN
-1.74522	NNS JJ
-2.618048	NNS JJR
-1.579703	NNS MD
-1.645632	NNS NN
-3.033021	NNS NNP
-1.905917	NNS NNS
-2.015988	NNS POS
-2.777749	NNS PRP
-3.888339	NNS PRP$
-1.598453	NNS RB
-2.886894	NNS RBR
-3.888339	NNS RBS
-3.430961	NNS RP
-1.714958	NNS TO
-2.370264	NNS VB
-1.142042	NNS VBD
-1.919078	NNS VBG
-1.714958	NNS VBN
-1.037386	NNS VBP
-2.041795	NNS VBZ
-1.823506	NNS WDT
-2.05075	NNS WP
-3.197958	NNS WP$
-2.585863	NNS WRB
-2.828902	NNS ``
-0.07918125	PDT DT
-0.90309	PDT PRP$
-2.320272	POS $
-2.320272	POS ,
-3.010653	POS -RRB-
-2.009208	POS .
-2.320272	POS CC
-1.599034	POS CD
-2.553276	POS IN
-0.6782148	POS JJ
-2.553276	POS JJR
-1.708178	POS JJS
-0.3934082	POS NN
-0.8858231	POS NNP
-2.155336	POS NNPS
-0.9098234	POS NNS
-2.377185	POS RB
-2.553276	POS RBS
-2.425193	POS VBD
-2.425193	POS VBG
-1.900064	POS VBN
-3.010653	POS VBZ
-3.010653	POS WP
-2.425193	POS ``
-1.739272	PRP ,
-2.724549	PRP -LRB-
-1.430818	PRP -NONE-
-3.358017	PRP -RRB-
-1.538912	PRP .
-2.5027	PRP :
-2.055542	PRP CC
-3.358017	PRP CD
-2.122489	PRP DT
-1.485667	PRP IN
-2.247428	PRP JJ
-2.5027	PRP JJR
-0.8963188	PRP MD
-2.772557	PRP NN
-2.724549	PRP NNP
-2.90064	PRP NNS
-2.724549	PRP PRP
-1.293185	PRP RB
-3.358017	PRP RBR
-2.772557	PRP RP
-1.786697	PRP TO
-2.025579	PRP VB
-0.6006973	PRP VBD
-2.5027	PRP VBG
-2.724549	PRP VBN
-0.7453042	PRP VBP
-0.7145318	PRP VBZ
-2.90064	PRP WP
-2.29858	PRP ``
-1.943865	PRP$ $
-3.003303	PRP$ ,
-3.003303	PRP$ -LRB-
-1.642835	PRP$ CD
-3.003303	PRP$ IN
-0.6538307	PRP$ JJ
-3.003303	PRP$ JJR
-1.846955	PRP$ JJS
-0.3640817	PRP$ NN
-1.255891	PRP$ NNP
-3.003303	PRP$ NNPS
-0.6651117	PRP$ NNS
-3.003303	PRP$ RB
-3.003303	PRP$ RBS
-2.312922	PRP$ VBG
-2.312922	PRP$ VBN
-3.003303	PRP$ VBZ
-2.545925	PRP$ ``
-2.108057	RB $
-2.931966	RB ''
-1.041731	RB ,
-3.565434	RB -LRB-
-1.623757	RB -NONE-
-1.383782	RB .
-2.232996	RB :
-2.108057	RB CC
-1.516993	RB CD
-1.278754	RB DT
-3.108057	RB EX
-0.9276447	RB IN
-1.03251	RB JJ
-1.775619	RB JJR
-3.565434	RB JJS
-2.028876	RB MD
-1.829304	RB NN
-2.454845	RB NNP
-3.565434	RB NNPS
-2.295144	RB NNS
-3.565434	RB PDT
-2.409087	RB PRP
-3.108057	RB PRP$
-1.139574	RB RB
-2.086868	RB RBR
-1.829304	RB TO
-0.9891316	RB VB
-1.20769	RB VBD
-1.500602	RB VBG
-0.9874834	RB VBN
-1.484808	RB VBP
-1.431364	RB VBZ
-2.875054	RB WDT
-2.875054	RB WP
-2.875054	RB WRB
-2.710117	RB ``
-1.6163	RBR ,
-2.249769	RBR -LRB-
-1.6163	RBR -NONE-
-1.664308	RBR .
-1.792392	RBR :
-1.792392	RBR CC
-1.559388	RBR DT
-0.6620579	RBR IN
-0.4121805	RBR JJ
-2.249769	RBR MD
-0.9472936	RBR RB
-2.249769	RBR TO
-1.792392	RBR VB
-2.249769	RBR VBD
-1.792392	RBR VBG
-1.394452	RBR VBN
-2.249769	RBR VBP
-2.249769	RBR WRB
-1.230449	RBS IN
-0.1335389	RBS JJ
-1.102365	RBS RB
-1.687826	RBS VBN
-2.441905	RP $
-1.984527	RP ''
-1.856444	RP ,
-1.055108	RP -NONE-
-1.856444	RP .
-1.808436	RP CC
-1.751524	RP CD
-0.6520889	RP DT
-0.5865873	RP IN
-1.206376	RP JJ
-1.984527	RP JJR
-1.331315	RP NN
-1.751524	RP NNP
-1.285557	RP NNS
-1.285557	RP PRP$
-1.856444	RP RB
-1.856444	RP TO
-1.984527	RP ``
-0.1563472	SYM NNP
-2.859359	TO #
-1.525045	TO $
-2.084353	TO -NONE-
-1.133137	TO CD
-0.8802328	TO DT
-2.33423	TO IN
-1.525045	TO JJ
-2.33423	TO JJR
-1.556079	TO NN
-1.419241	TO NNP
-1.517621	TO NNS
-2.24708	TO PRP
-1.769959	TO PRP$
-2.112381	TO RB
-2.811352	TO RBR
-0.2365489	TO VB
-2.811352	TO VBN
-2.33423	TO ``
-0.6334684	UH ,
-0.6334684	UH .
-0.6334684	UH IN
-1.997348	VB $
-2.825043	VB ''
-1.867715	VB ,
-2.881955	VB -LRB-
-1.101398	VB -NONE-
-3.515424	VB -RRB-
-1.827597	VB .
-2.825043	VB :
-2.080323	VB CC
-1.626683	VB CD
-0.6372656	VB DT
-0.9935883	VB IN
-1.06682	VB JJ
-2.058046	VB JJR
-3.515424	VB MD
-1.18589	VB NN
-1.489845	VB NNP
-3.515424	VB NNPS
-1.33377	VB NNS
-2.929963	VB PDT
-1.478263	VB PRP
-1.381353	VB PRP$
-1.445262	VB RB
-2.080323	VB RBR
-3.058046	VB RBS
-1.643073	VB RP
-1.779293	VB TO
-2.881955	VB VB
-3.058046	VB VBD
-2.058046	VB VBG
-1.05588	VB VBN
-3.515424	VB VBP
-3.058046	VB WDT
-2.513978	VB WP
-3.515424	VB WP$
-2.455986	VB WRB
-2.317683	VB ``
-3.579921	VBD #
-1.976416	VBD $
-3.579921	VBD ''
-2.043362	VBD ,
-3.579921	VBD -LRB-
-0.5674491	VBD -NONE-
-2.168301	VBD .
-2.724603	VBD :
-2.724603	VBD CC
-1.299722	VBD CD
-0.8795055	VBD DT
-0.9581907	VBD IN
-1.340788	VBD JJ
-2.14482	VBD JJR
-1.531479	VBD NN
-1.515089	VBD NNP
-1.69118	VBD NNS
-3.122544	VBD PDT
-1.932212	VBD PRP
-1.790105	VBD PRP$
-1.091135	VBD RB
-2.99446	VBD RBR
-1.832509	VBD RP
-1.638244	VBD TO
-3.579921	VBD UH
-2.99446	VBD VB
-1.760816	VBD VBG
-1.011954	VBD VBN
-3.122544	VBD WP
-2.88954	VBD WRB
-2.469331	VBD ``
-2.267507	VBG $
-2.811575	VBG ''
-1.714665	VBG ,
-1.121379	VBG -NONE-
-3.268952	VBG -RRB-
-1.770182	VBG .
-2.635484	VBG :
-1.857332	VBG CC
-1.681241	VBG CD
-0.747117	VBG DT
-0.9004174	VBG IN
-1.163215	VBG JJ
-1.790386	VBG JJR
-0.862185	VBG NN
-1.556303	VBG NNP
-3.268952	VBG NNPS
-1.008801	VBG NNS
-1.650207	VBG PRP
-1.544403	VBG PRP$
-1.422409	VBG RB
-2.413635	VBG RBR
-3.268952	VBG RBS
-1.697632	VBG RP
-1.35673	VBG TO
-2.811575	VBG VBD
-2.635484	VBG VBG
-1.665447	VBG VBN
-3.268952	VBG VBZ
-2.635484	VBG WP
-2.413635	VBG ``
-2.325424	VBN $
-2.745633	VBN ''
-2.165724	VBN ,
-0.255592	VBN -NONE-
-2.024395	VBN .
-2.745633	VBN :
-2.133539	VBN CC
-2.000913	VBN CD
-1.262634	VBN DT
-1.106481	VBN IN
-1.365853	VBN JJ
-2.580697	VBN JJR
-1.215209	VBN NN
-1.978637	VBN NNP
-1.428409	VBN NNS
-2.850554	VBN PRP
-1.864694	VBN PRP$
-1.656418	VBN RB
-2.978637	VBN RBR
-3.436014	VBN RBS
-1.957448	VBN RP
-1.817269	VBN TO
-1.802546	VBN VBG
-1.572097	VBN VBN
-3.436014	VBN VBZ
-2.745633	VBN WP
-2.850554	VBN ``
-2.608526	VBP $
-3.241994	VBP ''
-2.131405	VBP ,
-2.784617	VBP -LRB-
-0.7911811	VBP -NONE-
-2.131405	VBP .
-3.241994	VBP :
-2.386677	VBP CC
-2.085647	VBP CD
-0.9585425	VBP DT
-1.024949	VBP IN
-1.112519	VBP JJ
-2.656534	VBP JJR
-1.567133	VBP NN
-1.909556	VBP NNP
-1.687707	VBP NNS
-3.241994	VBP PDT
-1.654284	VBP PRP
-2.044255	VBP PRP$
-0.845098	VBP RB
-2.656534	VBP RBR
-1.939519	VBP RP
-2.006466	VBP TO
-3.241994	VBP VB
-2.784617	VBP VBD
-1.112519	VBP VBG
-0.7717801	VBP VBN
-2.784617	VBP WP
-2.784617	VBP WRB
-2.240549	VBP ``
-2.245513	VBZ $
-2.985875	VBZ ''
-2.110814	VBZ ,
-0.7025741	VBZ -NONE-
-2.587935	VBZ .
-2.383815	VBZ :
-2.441807	VBZ CC
-1.781755	VBZ CD
-0.8653014	VBZ DT
-1.064189	VBZ IN
-1.189995	VBZ JJ
-2.140777	VBZ JJR
-3.443253	VBZ JJS
-1.417674	VBZ NN
-1.674121	VBZ NNP
-1.944483	VBZ NNS
-3.443253	VBZ PDT
-1.888965	VBZ PRP
-2.031633	VBZ PRP$
-0.8786654	VBZ RB
-2.441807	VBZ RBR
-2.082785	VBZ RP
-2.207724	VBZ TO
-2.752872	VBZ VB
-2.809784	VBZ VBD
-1.337515	VBZ VBG
-0.8141489	VBZ VBN
-3.443253	VBZ VBZ
-2.809784	VBZ WP
-2.441807	VBZ WRB
-1.888965	VBZ ``
-0.07025782	WDT -NONE-
-2.752944	WDT :
-2.295567	WDT CD
-1.642355	WDT DT
-2.752944	WDT EX
-2.295567	WDT IN
-2.062564	WDT JJ
-2.752944	WDT JJS
-2.752944	WDT MD
-2.119476	WDT NN
-1.897627	WDT NNP
-2.167484	WDT NNS
-1.366148	WDT PRP
-2.295567	WDT RB
-2.295567	WDT VBD
-2.752944	WDT VBZ
-2.295567	WDT ``
-2.514282	WP ,
-0.1124222	WP -NONE-
-2.514282	WP CD
-1.403692	WP DT
-1.823901	WP IN
-2.514282	WP JJ
-1.880814	WP NN
-1.658965	WP NNP
-2.056905	WP NNS
-2.514282	WP PDT
-1.243991	WP PRP
-1.880814	WP PRP$
-1.823901	WP RB
-2.514282	WP RBS
-1.823901	WP VBZ
-1.156347	WP$ JJ
-0.5708865	WP$ NN
-0.5228788	WP$ NNS
-1.356299	WRB -NONE-
-1.724276	WRB CD
-0.5024271	WRB DT
-2.357744	WRB EX
-1.900367	WRB IN
-1.055269	WRB JJ
-2.357744	WRB MD
-1.201397	WRB NN
-1.160004	WRB NNP
-1.160004	WRB NNS
-2.357744	WRB PDT
-0.7542391	WRB PRP
-1.724276	WRB PRP$
-1.667364	WRB RB
-2.357744	WRB RBS
-2.357744	WRB RP
-1.900367	WRB VBD
-2.357744	WRB VBG
-1.724276	WRB VBP
-1.667364	WRB VBZ
-2.357744	WRB ``
-1.462398	`` -NONE-
-2.523096	`` </s>
-1.648035	`` CC
-2.980473	`` CD
-0.7485788	`` DT
-1.648035	`` EX
-1.170913	`` IN
-0.9852768	`` JJ
-2.980473	`` JJR
-1.979028	`` MD
-1.004582	`` NN
-1.190657	`` NNP
-1.481703	`` NNS
-0.7203221	`` PRP
-2.347005	`` PRP$
-1.170913	`` RB
-2.980473	`` UH
-1.744945	`` VB
-2.290092	`` VBD
-2.125156	`` VBG
-1.824126	`` VBN
-1.921036	`` VBP
-1.782733	`` VBZ
-2.395012	`` WP
-1.979028	`` WRB

\end\
